digraph Tree {
node [shape=box] ;
0 [label="X[29] <= 0.5\nentropy = 0.995\nsamples = 96\nvalue = [44, 52]"] ;
1 [label="X[14] <= 0.5\nentropy = 0.7496\nsamples = 42\nvalue = [9, 33]"] ;
0 -> 1 [labeldistance=2.5, labelangle=45, headlabel="True"] ;
2 [label="X[10] <= 1.5\nentropy = 0.9306\nsamples = 26\nvalue = [9, 17]"] ;
1 -> 2 ;
3 [label="X[13] <= 0.5\nentropy = 0.7919\nsamples = 21\nvalue = [5, 16]"] ;
2 -> 3 ;
4 [label="entropy = 0.0\nsamples = 7\nvalue = [0, 7]"] ;
3 -> 4 ;
5 [label="X[13] <= 2.5\nentropy = 0.9403\nsamples = 14\nvalue = [5, 9]"] ;
3 -> 5 ;
6 [label="X[16] <= 0.5\nentropy = 0.994\nsamples = 11\nvalue = [5, 6]"] ;
5 -> 6 ;
7 [label="entropy = 0.8113\nsamples = 8\nvalue = [2, 6]"] ;
6 -> 7 ;
8 [label="entropy = 0.0\nsamples = 3\nvalue = [3, 0]"] ;
6 -> 8 ;
9 [label="entropy = 0.0\nsamples = 3\nvalue = [0, 3]"] ;
5 -> 9 ;
10 [label="X[25] <= 2.5\nentropy = 0.7219\nsamples = 5\nvalue = [4, 1]"] ;
2 -> 10 ;
11 [label="entropy = 0.0\nsamples = 4\nvalue = [4, 0]"] ;
10 -> 11 ;
12 [label="entropy = 0.0\nsamples = 1\nvalue = [0, 1]"] ;
10 -> 12 ;
13 [label="entropy = 0.0\nsamples = 16\nvalue = [0, 16]"] ;
1 -> 13 ;
14 [label="X[15] <= 0.5\nentropy = 0.9357\nsamples = 54\nvalue = [35, 19]"] ;
0 -> 14 [labeldistance=2.5, labelangle=-45, headlabel="False"] ;
15 [label="X[14] <= 0.5\nentropy = 0.8296\nsamples = 42\nvalue = [31, 11]"] ;
14 -> 15 ;
16 [label="X[9] <= 0.5\nentropy = 0.6374\nsamples = 31\nvalue = [26, 5]"] ;
15 -> 16 ;
17 [label="X[24] <= 1.5\nentropy = 0.8524\nsamples = 18\nvalue = [13, 5]"] ;
16 -> 17 ;
18 [label="X[23] <= 1.5\nentropy = 0.9799\nsamples = 12\nvalue = [7, 5]"] ;
17 -> 18 ;
19 [label="entropy = 0.8813\nsamples = 10\nvalue = [7, 3]"] ;
18 -> 19 ;
20 [label="entropy = 0.0\nsamples = 2\nvalue = [0, 2]"] ;
18 -> 20 ;
21 [label="entropy = 0.0\nsamples = 6\nvalue = [6, 0]"] ;
17 -> 21 ;
22 [label="entropy = 0.0\nsamples = 13\nvalue = [13, 0]"] ;
16 -> 22 ;
23 [label="X[2] <= 0.5\nentropy = 0.994\nsamples = 11\nvalue = [5, 6]"] ;
15 -> 23 ;
24 [label="X[29] <= 3.0\nentropy = 0.5917\nsamples = 7\nvalue = [1, 6]"] ;
23 -> 24 ;
25 [label="entropy = 0.0\nsamples = 1\nvalue = [1, 0]"] ;
24 -> 25 ;
26 [label="entropy = 0.0\nsamples = 6\nvalue = [0, 6]"] ;
24 -> 26 ;
27 [label="entropy = 0.0\nsamples = 4\nvalue = [4, 0]"] ;
23 -> 27 ;
28 [label="X[25] <= 3.5\nentropy = 0.9183\nsamples = 12\nvalue = [4, 8]"] ;
14 -> 28 ;
29 [label="X[29] <= 4.5\nentropy = 0.7219\nsamples = 10\nvalue = [2, 8]"] ;
28 -> 29 ;
30 [label="entropy = 0.0\nsamples = 7\nvalue = [0, 7]"] ;
29 -> 30 ;
31 [label="X[25] <= 2.0\nentropy = 0.9183\nsamples = 3\nvalue = [2, 1]"] ;
29 -> 31 ;
32 [label="entropy = 0.0\nsamples = 2\nvalue = [2, 0]"] ;
31 -> 32 ;
33 [label="entropy = 0.0\nsamples = 1\nvalue = [0, 1]"] ;
31 -> 33 ;
34 [label="entropy = 0.0\nsamples = 2\nvalue = [2, 0]"] ;
28 -> 34 ;
}