digraph Tree {
node [shape=box] ;
0 [label="X[0] <= 0.5\nentropy = 0.9995\nsamples = 78\nvalue = [40, 38]"] ;
1 [label="X[1] <= 0.5\nentropy = 0.8631\nsamples = 56\nvalue = [40, 16]"] ;
0 -> 1 [labeldistance=2.5, labelangle=45, headlabel="True"] ;
2 [label="entropy = 0.4465\nsamples = 43\nvalue = [39, 4]"] ;
1 -> 2 ;
3 [label="entropy = 0.3912\nsamples = 13\nvalue = [1, 12]"] ;
1 -> 3 ;
4 [label="entropy = 0.0\nsamples = 22\nvalue = [0, 22]"] ;
0 -> 4 [labeldistance=2.5, labelangle=-45, headlabel="False"] ;
}