digraph Tree {
node [shape=box] ;
0 [label="X[0] <= 0.5\nentropy = 0.9981\nsamples = 156\nvalue = [74, 82]"] ;
1 [label="X[1] <= 0.5\nentropy = 0.9183\nsamples = 102\nvalue = [68, 34]"] ;
0 -> 1 [labeldistance=2.5, labelangle=45, headlabel="True"] ;
2 [label="entropy = 0.5746\nsamples = 66\nvalue = [57, 9]"] ;
1 -> 2 ;
3 [label="entropy = 0.888\nsamples = 36\nvalue = [11, 25]"] ;
1 -> 3 ;
4 [label="X[27] <= 1.5\nentropy = 0.5033\nsamples = 54\nvalue = [6, 48]"] ;
0 -> 4 [labeldistance=2.5, labelangle=-45, headlabel="False"] ;
5 [label="entropy = 0.795\nsamples = 25\nvalue = [6, 19]"] ;
4 -> 5 ;
6 [label="entropy = 0.0\nsamples = 29\nvalue = [0, 29]"] ;
4 -> 6 ;
}