digraph Tree {
node [shape=box] ;
0 [label="X[9] <= 0.5\nentropy = 0.998\nsamples = 76\nvalue = [40, 36]"] ;
1 [label="X[4] <= 0.5\nentropy = 0.8508\nsamples = 47\nvalue = [34, 13]"] ;
0 -> 1 [labeldistance=2.5, labelangle=45, headlabel="True"] ;
2 [label="X[18] <= 0.5\nentropy = 0.6594\nsamples = 41\nvalue = [34, 7]"] ;
1 -> 2 ;
3 [label="X[28] <= 1.5\nentropy = 0.422\nsamples = 35\nvalue = [32, 3]"] ;
2 -> 3 ;
4 [label="entropy = 0.0\nsamples = 25\nvalue = [25, 0]"] ;
3 -> 4 ;
5 [label="X[27] <= 0.5\nentropy = 0.8813\nsamples = 10\nvalue = [7, 3]"] ;
3 -> 5 ;
6 [label="entropy = 0.0\nsamples = 4\nvalue = [4, 0]"] ;
5 -> 6 ;
7 [label="entropy = 1.0\nsamples = 6\nvalue = [3, 3]"] ;
5 -> 7 ;
8 [label="X[6] <= 1.0\nentropy = 0.9183\nsamples = 6\nvalue = [2, 4]"] ;
2 -> 8 ;
9 [label="entropy = 0.0\nsamples = 3\nvalue = [0, 3]"] ;
8 -> 9 ;
10 [label="X[1] <= 0.5\nentropy = 0.9183\nsamples = 3\nvalue = [2, 1]"] ;
8 -> 10 ;
11 [label="entropy = 0.0\nsamples = 2\nvalue = [2, 0]"] ;
10 -> 11 ;
12 [label="entropy = 0.0\nsamples = 1\nvalue = [0, 1]"] ;
10 -> 12 ;
13 [label="entropy = 0.0\nsamples = 6\nvalue = [0, 6]"] ;
1 -> 13 ;
14 [label="X[29] <= 11.0\nentropy = 0.7355\nsamples = 29\nvalue = [6, 23]"] ;
0 -> 14 [labeldistance=2.5, labelangle=-45, headlabel="False"] ;
15 [label="X[13] <= 0.5\nentropy = 0.6052\nsamples = 27\nvalue = [4, 23]"] ;
14 -> 15 ;
16 [label="X[7] <= 2.5\nentropy = 0.8366\nsamples = 15\nvalue = [4, 11]"] ;
15 -> 16 ;
17 [label="X[16] <= 0.5\nentropy = 0.9911\nsamples = 9\nvalue = [4, 5]"] ;
16 -> 17 ;
18 [label="entropy = 0.9183\nsamples = 6\nvalue = [4, 2]"] ;
17 -> 18 ;
19 [label="entropy = 0.0\nsamples = 3\nvalue = [0, 3]"] ;
17 -> 19 ;
20 [label="entropy = 0.0\nsamples = 6\nvalue = [0, 6]"] ;
16 -> 20 ;
21 [label="entropy = 0.0\nsamples = 12\nvalue = [0, 12]"] ;
15 -> 21 ;
22 [label="entropy = 0.0\nsamples = 2\nvalue = [2, 0]"] ;
14 -> 22 ;
}